<?xml version="1.0"?>
<opencv_storage>
<cascade>
  <stageType>BOOST</stageType>
  <featureType>HAAR</featureType>
  <height>45</height>
  <width>50</width>
  <stageParams>
    <boostType>GAB</boostType>
    <minHitRate>9.9500000476837158e-01</minHitRate>
    <maxFalseAlarm>5.0000000000000000e-01</maxFalseAlarm>
    <weightTrimRate>9.4999998807907104e-01</weightTrimRate>
    <maxDepth>1</maxDepth>
    <maxWeakCount>100</maxWeakCount></stageParams>
  <featureParams>
    <maxCatCount>0</maxCatCount>
    <featSize>1</featSize>
    <mode>BASIC</mode></featureParams>
  <stageNum>4</stageNum>
  <stages>
    <!-- stage 0 -->
    <_>
      <maxWeakCount>3</maxWeakCount>
      <stageThreshold>-8.4597027301788330e-01</stageThreshold>
      <weakClassifiers>
        <_>
          <internalNodes>
            0 -1 1 -9.1815833002328873e-03</internalNodes>
          <leafValues>
            7.7777779102325439e-01 -7.5572520494461060e-01</leafValues></_>
        <_>
          <internalNodes>
            0 -1 8 -4.1042640805244446e-04</internalNodes>
          <leafValues>
            8.5545271635055542e-01 -5.9124583005905151e-01</leafValues></_>
        <_>
          <internalNodes>
            0 -1 6 -3.6268440908315824e-06</internalNodes>
          <leafValues>
            -9.3133300542831421e-01 5.0100076198577881e-01</leafValues></_></weakClassifiers></_>
    <!-- stage 1 -->
    <_>
      <maxWeakCount>3</maxWeakCount>
      <stageThreshold>-7.9853069782257080e-01</stageThreshold>
      <weakClassifiers>
        <_>
          <internalNodes>
            0 -1 4 -1.2930508819408715e-04</internalNodes>
          <leafValues>
            5.2631580829620361e-01 -8.1666666269302368e-01</leafValues></_>
        <_>
          <internalNodes>
            0 -1 2 -1.6872196283657104e-04</internalNodes>
          <leafValues>
            7.0621460676193237e-01 -7.3879438638687134e-01</leafValues></_>
        <_>
          <internalNodes>
            0 -1 7 -2.2819262812845409e-04</internalNodes>
          <leafValues>
            8.7254852056503296e-01 -5.8605211973190308e-01</leafValues></_></weakClassifiers></_>
    <!-- stage 2 -->
    <_>
      <maxWeakCount>3</maxWeakCount>
      <stageThreshold>-6.9850134849548340e-01</stageThreshold>
      <weakClassifiers>
        <_>
          <internalNodes>
            0 -1 3 -3.3838761737570167e-05</internalNodes>
          <leafValues>
            -8.1538462638854980e-01 1.</leafValues></_>
        <_>
          <internalNodes>
            0 -1 9 -2.1831676349393092e-05</internalNodes>
          <leafValues>
            1. -7.2855979204177856e-01</leafValues></_>
        <_>
          <internalNodes>
            0 -1 5 -5.5132248235167935e-05</internalNodes>
          <leafValues>
            -8.1616508960723877e-01 8.4544306993484497e-01</leafValues></_></weakClassifiers></_>
    <!-- stage 3 -->
    <_>
      <maxWeakCount>1</maxWeakCount>
      <stageThreshold>1.</stageThreshold>
      <weakClassifiers>
        <_>
          <internalNodes>
            0 -1 0 -1.0184161365032196e-02</internalNodes>
          <leafValues>
            -1. 1.</leafValues></_></weakClassifiers></_></stages>
  <features>
    <_>
      <rects>
        <_>
          0 0 1 33 -1.</_>
        <_>
          0 11 1 11 3.</_></rects>
      <tilted>0</tilted></_>
    <_>
      <rects>
        <_>
          0 15 8 17 -1.</_>
        <_>
          4 15 4 17 2.</_></rects>
      <tilted>0</tilted></_>
    <_>
      <rects>
        <_>
          3 38 4 2 -1.</_>
        <_>
          5 38 2 2 2.</_></rects>
      <tilted>0</tilted></_>
    <_>
      <rects>
        <_>
          3 41 5 2 -1.</_>
        <_>
          3 42 5 1 2.</_></rects>
      <tilted>0</tilted></_>
    <_>
      <rects>
        <_>
          5 6 2 6 -1.</_>
        <_>
          5 8 2 2 3.</_></rects>
      <tilted>0</tilted></_>
    <_>
      <rects>
        <_>
          16 15 14 4 -1.</_>
        <_>
          16 15 7 2 2.</_>
        <_>
          23 17 7 2 2.</_></rects>
      <tilted>0</tilted></_>
    <_>
      <rects>
        <_>
          16 43 2 2 -1.</_>
        <_>
          16 44 2 1 2.</_></rects>
      <tilted>0</tilted></_>
    <_>
      <rects>
        <_>
          19 3 2 6 -1.</_>
        <_>
          19 5 2 2 3.</_></rects>
      <tilted>0</tilted></_>
    <_>
      <rects>
        <_>
          32 2 17 3 -1.</_>
        <_>
          32 3 17 1 3.</_></rects>
      <tilted>0</tilted></_>
    <_>
      <rects>
        <_>
          42 29 6 1 -1.</_>
        <_>
          44 29 2 1 3.</_></rects>
      <tilted>0</tilted></_></features></cascade>
</opencv_storage>
